<?xml version="1.0"?>
<opencv_storage>
<stage9>
  <maxWeakCount>6</maxWeakCount>
  <stageThreshold>-1.6806291341781616e+00</stageThreshold>
  <weakClassifiers>
    <_>
      <internalNodes>
        0 -1 106992 2.5387445464730263e-02</internalNodes>
      <leafValues>
        -8.8146752119064331e-01 1.</leafValues></_>
    <_>
      <internalNodes>
        0 -1 273480 -1.6653107479214668e-02</internalNodes>
      <leafValues>
        4.1387066245079041e-01 -6.1114960908889771e-01</leafValues></_>
    <_>
      <internalNodes>
        0 -1 217987 1.0470326378708705e-04</internalNodes>
      <leafValues>
        -8.3214753866195679e-01 2.1863663196563721e-01</leafValues></_>
    <_>
      <internalNodes>
        0 -1 45666 -9.2253438197076321e-04</internalNodes>
      <leafValues>
        -8.7787008285522461e-01 2.0854571461677551e-01</leafValues></_>
    <_>
      <internalNodes>
        0 -1 25099 -1.2109852395951748e-03</internalNodes>
      <leafValues>
        -8.6344385147094727e-01 2.6493504643440247e-01</leafValues></_>
    <_>
      <internalNodes>
        0 -1 195257 2.0638518035411835e-03</internalNodes>
      <leafValues>
        2.4824945628643036e-01 -8.3167326450347900e-01</leafValues></_></weakClassifiers></stage9>
</opencv_storage>
